{"weights": [[0.08440931141376495], [-0.04381749406456947], [0.34496447443962097], [0.19844965636730194], [0.24626605212688446], [-0.027573900297284126], [-0.13637511432170868], [-0.08908209949731827], [-0.0856790840625763], [0.04963992163538933], [-0.166978120803833], [-0.008966083638370037], [0.039067164063453674], [-0.16209661960601807], [0.026072103530168533], [-0.1615072637796402], [0.1543421745300293], [-0.1348285973072052], [0.0473736897110939], [-0.05485479161143303], [0.2281390130519867], [0.012731499038636684], [0.322482705116272], [-0.24610337615013123], [-0.02355869859457016], [0.11991868168115616], [0.08598185330629349], [-0.10244230926036835], [-0.24794146418571472], [0.1815507709980011], [0.3105814456939697], [-0.20076307654380798], [-0.11980589479207993], [-0.09293459355831146], [0.1275867372751236], [-0.2235192060470581], [0.07519060373306274], [-0.11147500574588776], [0.10456223785877228], [0.03699919208884239], [-0.10635896027088165], [-0.1386503428220749], [-0.0454532727599144], [0.12023109942674637], [-0.07950469851493835], [0.027063367888331413], [0.07076878100633621], [0.05954725667834282], [-0.25330039858818054], [0.11014652997255325]], "bias": [0.02390923909842968]}